#ifndef WEIGHTS_WEIGHT_1_WEIGHT_TEX_H
#define WEIGHTS_WEIGHT_1_WEIGHT_TEX_H

int Weights_Weight_1_WeightVertexCount = 146;
float Weights_Weight_1_WeightVertices[] = {
	-1.875995, 41.735458, -0.169789
	-1.860637, 41.735458, 0.005758
	-2.871569, 41.735458, 0.005758
	-1.875995, 41.735458, -0.169789
	-1.875995, 47.029198, -0.169788
	-1.860637, 47.029198, 0.005759
	-1.860637, 41.735458, 0.005758
	-1.875995, 47.029198, -0.169788
	-2.871569, 47.029198, 0.005759
	-1.860637, 47.029198, 0.005759
	-1.921604, 41.735458, -0.340001
	-1.921604, 41.735458, -0.340001
	-1.921604, 47.029198, -0.340001
	-1.921604, 47.029198, -0.340001
	-1.996076, 41.735458, -0.499708
	-1.996076, 41.735458, -0.499708
	-1.996076, 47.029198, -0.499708
	-1.996076, 47.029198, -0.499708
	-2.097150, 41.735458, -0.644057
	-2.097150, 41.735458, -0.644057
	-2.097150, 47.029198, -0.644056
	-2.097150, 47.029198, -0.644056
	-2.221755, 41.735458, -0.768661
	-2.221755, 41.735458, -0.768661
	-2.221755, 47.029198, -0.768660
	-2.221755, 47.029198, -0.768660
	-2.366103, 41.735458, -0.869735
	-2.366103, 41.735458, -0.869735
	-2.366103, 47.029198, -0.869734
	-2.366103, 47.029198, -0.869734
	-2.525810, 41.735458, -0.944208
	-2.525810, 41.735458, -0.944208
	-2.525810, 47.029198, -0.944207
	-2.525810, 47.029198, -0.944207
	-2.696023, 41.735458, -0.989816
	-2.696023, 41.735458, -0.989816
	-2.696023, 47.029198, -0.989815
	-2.696023, 47.029198, -0.989815
	-2.871569, 41.735458, -1.005175
	-2.871569, 41.735458, -1.005175
	-2.871569, 47.029198, -1.005174
	-2.871569, 47.029198, -1.005174
	-3.047116, 41.735458, -0.989816
	-3.047116, 41.735458, -0.989816
	-3.047116, 47.029198, -0.989815
	-3.047116, 47.029198, -0.989815
	-3.217329, 41.735458, -0.944208
	-3.217329, 41.735458, -0.944208
	-3.217329, 47.029198, -0.944207
	-3.217329, 47.029198, -0.944207
	-3.377036, 41.735458, -0.869735
	-3.377036, 41.735458, -0.869735
	-3.377036, 47.029198, -0.869734
	-3.377036, 47.029198, -0.869734
	-3.521384, 41.735458, -0.768661
	-3.521384, 41.735458, -0.768661
	-3.521384, 47.029198, -0.768660
	-3.521384, 47.029198, -0.768660
	-3.645989, 41.735458, -0.644057
	-3.645989, 41.735458, -0.644057
	-3.645989, 47.029198, -0.644056
	-3.645989, 47.029198, -0.644056
	-3.747063, 41.735458, -0.499708
	-3.747063, 41.735458, -0.499708
	-3.747063, 47.029198, -0.499707
	-3.747063, 47.029198, -0.499707
	-3.821535, 41.735458, -0.340001
	-3.821535, 41.735458, -0.340001
	-3.821535, 47.029198, -0.340001
	-3.821535, 47.029198, -0.340001
	-3.867144, 41.735458, -0.169789
	-3.867144, 41.735458, -0.169789
	-3.867144, 47.029198, -0.169788
	-3.867144, 47.029198, -0.169788
	-3.882502, 41.735458, 0.005758
	-3.882502, 41.735458, 0.005758
	-3.882502, 47.029198, 0.005759
	-3.882502, 47.029198, 0.005759
	-3.867144, 41.735458, 0.181304
	-3.867144, 41.735458, 0.181304
	-3.867144, 47.029198, 0.181305
	-3.867144, 47.029198, 0.181305
	-3.821535, 41.735458, 0.351517
	-3.821535, 41.735458, 0.351517
	-3.821535, 47.029198, 0.351518
	-3.821535, 47.029198, 0.351518
	-3.747062, 41.735458, 0.511224
	-3.747062, 41.735458, 0.511224
	-3.747062, 47.029198, 0.511225
	-3.747062, 47.029198, 0.511225
	-3.645988, 41.735458, 0.655573
	-3.645988, 41.735458, 0.655573
	-3.645988, 47.029198, 0.655574
	-3.645988, 47.029198, 0.655574
	-3.521384, 41.735458, 0.780177
	-3.521384, 41.735458, 0.780177
	-3.521384, 47.029198, 0.780178
	-3.521384, 47.029198, 0.780178
	-3.377036, 41.735458, 0.881251
	-3.377036, 41.735458, 0.881251
	-3.377036, 47.029198, 0.881252
	-3.377036, 47.029198, 0.881252
	-3.217329, 41.735458, 0.955724
	-3.217329, 41.735458, 0.955724
	-3.217329, 47.029198, 0.955724
	-3.217329, 47.029198, 0.955724
	-3.047116, 41.735458, 1.001332
	-3.047116, 41.735458, 1.001332
	-3.047116, 47.029198, 1.001333
	-3.047116, 47.029198, 1.001333
	-2.871569, 41.735458, 1.016690
	-2.871569, 41.735458, 1.016690
	-2.871569, 47.029198, 1.016691
	-2.871569, 47.029198, 1.016691
	-2.696023, 41.735458, 1.001332
	-2.696023, 41.735458, 1.001332
	-2.696023, 47.029198, 1.001333
	-2.696023, 47.029198, 1.001333
	-2.525810, 41.735458, 0.955724
	-2.525810, 41.735458, 0.955724
	-2.525810, 47.029198, 0.955724
	-2.525810, 47.029198, 0.955724
	-2.366103, 41.735458, 0.881251
	-2.366103, 41.735458, 0.881251
	-2.366103, 47.029198, 0.881252
	-2.366103, 47.029198, 0.881252
	-2.221755, 41.735458, 0.780177
	-2.221755, 41.735458, 0.780177
	-2.221755, 47.029198, 0.780178
	-2.221755, 47.029198, 0.780178
	-2.097150, 41.735458, 0.655573
	-2.097150, 41.735458, 0.655573
	-2.097150, 47.029198, 0.655573
	-2.097150, 47.029198, 0.655573
	-1.996076, 41.735458, 0.511224
	-1.996076, 41.735458, 0.511224
	-1.996076, 47.029198, 0.511225
	-1.996076, 47.029198, 0.511225
	-1.921604, 41.735458, 0.351517
	-1.921604, 41.735458, 0.351517
	-1.921604, 47.029198, 0.351518
	-1.921604, 47.029198, 0.351518
	-1.875995, 41.735458, 0.181304
	-1.875995, 41.735458, 0.181304
	-1.875995, 47.029198, 0.181305
	-1.875995, 47.029198, 0.181305
};

float Weights_Weight_1_WeightTexCoord[] = {
	0.007596, 0.586824
	0.000000, 0.500000
	0.500000, 0.500000
	0.027778, 0.000000
	0.027778, 1.000000
	0.000000, 1.000000
	0.000000, 0.000000
	0.992404, 0.586824
	1.000000, 0.500000
	0.030154, 0.671010
	0.055556, 0.000000
	0.055556, 1.000000
	0.969846, 0.671010
	0.066987, 0.750000
	0.083333, 0.000000
	0.083333, 1.000000
	0.933013, 0.750000
	0.116978, 0.821394
	0.111111, 0.000000
	0.111111, 1.000000
	0.883022, 0.821394
	0.178606, 0.883022
	0.138889, 0.000000
	0.138889, 1.000000
	0.821394, 0.883022
	0.250000, 0.933013
	0.166667, 0.000000
	0.166667, 1.000000
	0.750000, 0.933013
	0.328990, 0.969846
	0.194444, 0.000000
	0.194444, 1.000000
	0.671010, 0.969846
	0.413176, 0.992404
	0.222222, 0.000000
	0.222222, 1.000000
	0.586824, 0.992404
	0.500000, 1.000000
	0.250000, 0.000000
	0.250000, 1.000000
	0.277778, 0.000000
	0.277778, 1.000000
	0.305556, 0.000000
	0.305556, 1.000000
	0.333333, 0.000000
	0.333333, 1.000000
	0.361111, 0.000000
	0.361111, 1.000000
	0.388889, 0.000000
	0.388889, 1.000000
	0.416667, 0.000000
	0.416667, 1.000000
	0.444444, 0.000000
	0.444444, 1.000000
	0.472222, 0.000000
	0.472222, 1.000000
	0.500000, 0.000000
	0.992404, 0.413176
	0.527778, 0.000000
	0.527778, 1.000000
	0.007596, 0.413176
	0.969846, 0.328990
	0.555556, 0.000000
	0.555556, 1.000000
	0.030154, 0.328990
	0.933013, 0.250000
	0.583333, 0.000000
	0.583333, 1.000000
	0.066987, 0.250000
	0.883022, 0.178606
	0.611111, 0.000000
	0.611111, 1.000000
	0.116978, 0.178606
	0.821394, 0.116978
	0.638889, 0.000000
	0.638889, 1.000000
	0.178606, 0.116978
	0.750000, 0.066987
	0.666667, 0.000000
	0.666667, 1.000000
	0.250000, 0.066987
	0.671010, 0.030154
	0.694444, 0.000000
	0.694444, 1.000000
	0.328990, 0.030154
	0.586824, 0.007596
	0.722222, 0.000000
	0.722222, 1.000000
	0.413176, 0.007596
	0.750000, 0.000000
	0.750000, 1.000000
	0.777778, 0.000000
	0.777778, 1.000000
	0.805556, 0.000000
	0.805556, 1.000000
	0.833333, 0.000000
	0.833333, 1.000000
	0.861111, 0.000000
	0.861111, 1.000000
	0.888889, 0.000000
	0.888889, 1.000000
	0.916667, 0.000000
	0.916667, 1.000000
	0.944444, 0.000000
	0.944444, 1.000000
	0.972222, 0.000000
	0.972222, 1.000000
	1.000000, 0.000000
	1.000000, 1.000000
};

float Weights_Weight_1_WeightNormals[] = {
	0.000000, -1.000000, 0.000000
	0.996200, 0.000000, -0.087200
	0.000000, 1.000000, 0.000000
	0.965900, 0.000000, -0.258800
	0.906300, 0.000000, -0.422600
	0.819200, 0.000000, -0.573600
	0.707100, 0.000000, -0.707100
	0.573600, 0.000000, -0.819200
	0.422600, 0.000000, -0.906300
	0.258800, 0.000000, -0.965900
	0.087200, 0.000000, -0.996200
	-0.087200, 0.000000, -0.996200
	-0.258800, 0.000000, -0.965900
	-0.422600, 0.000000, -0.906300
	-0.573600, 0.000000, -0.819200
	-0.707100, 0.000000, -0.707100
	-0.819200, 0.000000, -0.573600
	-0.906300, 0.000000, -0.422600
	-0.965900, 0.000000, -0.258800
	-0.996200, -0.000000, -0.087200
	-0.996200, -0.000000, 0.087200
	-0.965900, -0.000000, 0.258800
	-0.906300, -0.000000, 0.422600
	-0.819200, -0.000000, 0.573600
	-0.707100, -0.000000, 0.707100
	-0.573600, -0.000000, 0.819200
	-0.422600, -0.000000, 0.906300
	-0.258800, -0.000000, 0.965900
	-0.087200, -0.000000, 0.996200
	0.087200, -0.000000, 0.996200
	0.258800, -0.000000, 0.965900
	0.422600, -0.000000, 0.906300
	0.573600, -0.000000, 0.819200
	0.707100, -0.000000, 0.707100
	0.819200, -0.000000, 0.573600
	0.906300, -0.000000, 0.422600
	0.965900, -0.000000, 0.258800
	0.996200, -0.000000, 0.087200
};


#endif \\Weights_Weight_1_Weight